{
  "kind": "mcts_value_network",
  "network": {
    "feature_names": [
      "is_current_player",
      "turn_number",
      "dice_roll",
      "own_total_vp",
      "opp_total_vp",
      "own_visible_vp",
      "opp_visible_vp",
      "own_resources_total",
      "opp_resources_total",
      "own_resource_diversity",
      "opp_resource_diversity",
      "own_settlements",
      "opp_settlements",
      "own_cities",
      "opp_cities",
      "own_roads",
      "opp_roads",
      "own_roads_remaining",
      "own_settlements_remaining",
      "own_cities_remaining",
      "own_longest_road_len",
      "opp_longest_road_len",
      "own_played_knights",
      "opp_played_knights",
      "own_dev_cards",
      "opp_dev_cards",
      "own_new_dev_cards",
      "opp_new_dev_cards",
      "owns_longest_road",
      "opp_owns_longest_road",
      "owns_largest_army",
      "opp_owns_largest_army",
      "own_production",
      "opp_production",
      "own_port_score",
      "opp_port_score",
      "own_expansion",
      "opp_expansion",
      "own_robber_exposure",
      "opp_robber_exposure",
      "own_prod_lumber",
      "own_prod_brick",
      "own_prod_wool",
      "own_prod_grain",
      "own_prod_ore",
      "opp_prod_lumber",
      "opp_prod_brick",
      "opp_prod_wool",
      "opp_prod_grain",
      "opp_prod_ore",
      "own_settlement_potential",
      "opp_settlement_potential",
      "own_city_potential",
      "opp_city_potential",
      "own_road_frontier",
      "opp_road_frontier",
      "own_longest_road_threat",
      "opp_longest_road_threat",
      "own_blocks_opp_expansion",
      "opp_blocks_own_expansion",
      "own_played_dev_this_turn",
      "opp_played_dev_this_turn",
      "dev_deck_remaining",
      "own_bank_pressure",
      "opp_bank_pressure",
      "own_port_fit",
      "opp_port_fit",
      "own_can_win_now",
      "opp_can_win_now",
      "phase_SETUP_SETTLEMENT",
      "phase_SETUP_ROAD",
      "phase_ROLL",
      "phase_DISCARD",
      "phase_MOVE_ROBBER",
      "phase_STEAL",
      "phase_MAIN",
      "phase_GAME_OVER",
      "own_lumber",
      "own_brick",
      "own_wool",
      "own_grain",
      "own_ore",
      "opp_lumber",
      "opp_brick",
      "opp_wool",
      "opp_grain",
      "opp_ore"
    ],
    "hidden_bias": [
      0.03782304897087493,
      -0.022948871772028107,
      -0.005549947888215283,
      0.02883039280069346,
      -0.001961672012527816,
      0.02659638962511787,
      0.016254974041649394,
      -0.024390043734990773,
      0.02702013915253596,
      -0.03622874742468648,
      -0.022150137247538334,
      0.013711613236435802,
      -0.011594969355833687,
      -0.005269241825730635,
      -0.014277447836873252,
      0.007452469549727042,
      -0.01822531438006049,
      -0.01849336065385437,
      0.016431291118572333,
      -0.017978818188939212,
      0.01149118655065672,
      -0.014270427617741227,
      -0.012144309436777422,
      0.016952706270108957,
      0.0016036580392475184,
      0.00016213612627817152,
      0.03554054714359679,
      0.032901738969330546,
      0.028497451237296433,
      -0.013215520741980747,
      -0.02357430919680578,
      -0.033700068883393254
    ],
    "hidden_size": 32,
    "hidden_weights": [
      [
        -0.040549026565976025,
        0.08229876331433245,
        0.07824437239663712,
        -0.04269172476581304,
        0.014218167676333514,
        -0.0011879153121398369,
        0.04729001381993128,
        0.06996999651099034,
        -0.07853937907560993,
        -0.07884581867714759,
        0.09390518446921287,
        -0.002968971156809772,
        0.059694712434672545,
        -0.09737226053940132,
        0.006596794508257926,
        0.06065957882180295,
        -0.03942008022788925,
        0.12006359344240357,
        0.11240639677665977,
        -0.07212528721520706,
        -0.0912511349026656,
        0.024390688799277926,
        0.09509186440833568,
        -0.020780828071314983,
        -0.060694803616772444,
        -0.015156568959586588,
        -0.10042383690265097,
        -0.05964657531781055,
        -0.008322290259538971,
        0.021603306401152038,
        -0.055859202642524024,
        -0.051088075663906315,
        -0.030413091920303465,
        0.027356593476248005,
        -0.04465414476017052,
        -0.10036744837455644,
        0.07397210522918253,
        0.015449989208960702,
        0.0398566629142442,
        -0.06393698524946849,
        0.11387382729014747,
        0.07762701267790367,
        -0.05454901505281365,
        -0.01264177515421215,
        0.05355641074531801,
        0.05758531804152912,
        0.09552073757575658,
        0.0017271620398465722,
        0.10167741238969864,
        0.0671966270345034,
        -0.03808433181467941,
        0.027147112274353152,
        0.0860828632051015,
        0.07561043148216708,
        0.025823397020917,
        0.04401482987337175,
        -0.09532495020708075,
        -0.044597811016417334,
        0.06597757222766133,
        -0.01785699966726897,
        -0.06757879781981334,
        0.010458468697562806,
        0.07510865743249566,
        0.03753226842481754,
        -0.026638443100064975,
        -0.012361596805066193,
        0.00549731572155175,
        0.05967535425506797,
        0.00448748654585196,
        -0.023888650857217378,
        -0.0031500492785466916,
        -0.10082070474633792,
        -0.09783903828765916,
        0.047298578427455634,
        0.1035559811925244,
        0.056026769624963016,
        -0.02280353676553787,
        -0.0646198368771712,
        0.0005958406748879343,
        0.10913645829259773,
        0.06280331820274934,
        0.011928674031975036,
        0.08155353146255946,
        -0.056869053083764665,
        0.007789139377407707,
        0.10326433656433029,
        0.021935490885668173
      ],
      [
        -0.03170237274599845,
        -0.053357409582683334,
        -0.002926081225362682,
        0.09554001881816061,
        -0.11691547453811485,
        0.05831240120734112,
        0.05797986430715273,
        0.07938898601734916,
        0.04652608783186903,
        0.05328839170661104,
        -0.00886720113321066,
        0.0031552160996572614,
        -0.014680662012250028,
        -0.09596067646515183,
        0.06530720245650896,
        0.010869413320072421,
        -0.07715025072280753,
        -0.017799144892674888,
        -0.016179480163052644,
        -0.05280632264431751,
        -0.035847005396075125,
        -0.002455309765148073,
        0.02826708539377759,
        0.019678247155958787,
        -0.008432526378624948,
        -0.10237487062755628,
        -0.05823988871754224,
        -0.06917954161713856,
        0.02478656535414225,
        0.05631123659805791,
        0.06698134678173474,
        0.057509351944151584,
        0.053165489937213,
        -0.0755892419155235,
        0.0745581602933107,
        0.03498297719003819,
        -0.08929084496859473,
        -0.10620013317693378,
        -0.11194128479034518,
        0.0560869463840799,
        -0.05556685569749575,
        -0.08254478115980667,
        0.007366275582136932,
        -0.04337478082921437,
        -0.08504075489859349,
        -0.08180101285099808,
        0.003953088319719812,
        -0.07823414433474343,
        -0.06990008716317904,
        0.0173527242857214,
        -0.009633981586629798,
        -0.04469348191856333,
        -0.009422694097884118,
        -0.10193616606265701,
        -0.03812922898375621,
        -0.03181195577143963,
        -0.06549320218656002,
        -0.09214709682391438,
        0.0836183735828309,
        0.002728900008212494,
        -0.060394389360331494,
        0.022642439342816782,
        0.04780795131510806,
        -0.10226910623762649,
        -0.10348020745385927,
        -0.07356506220623911,
        0.0433326675243598,
        -0.07281945249619572,
        0.043850735005640025,
        0.037800263886372525,
        0.010628460591748051,
        -0.059880593405909864,
        0.10192861941242565,
        0.06124146604142106,
        0.0035575806326108256,
        -0.0803448068356377,
        0.03182764645856998,
        -0.02646253089532264,
        0.016728387144011196,
        -0.041486243880373384,
        0.026421944770683353,
        -0.09471880125212556,
        -0.04498839302136552,
        0.09980063886734103,
        0.07777954842114172,
        -0.045577565094445494,
        0.07338326919859936
      ],
      [
        -0.04619085427593446,
        0.09301276737101122,
        0.04929698666587725,
        -0.02140587945795072,
        -0.05331877228376415,
        -0.1086518528513866,
        0.08086567216426238,
        -0.09819947931719235,
        0.06709446851703649,
        0.09685344021367057,
        0.011161914633734516,
        -0.0694578845326294,
        0.07546214270074003,
        0.09687087447221358,
        0.044337943574839105,
        -0.0018839019846935306,
        -0.027080821836335207,
        -0.034568112678351304,
        -0.06955097234491563,
        0.036443716537945356,
        -0.0176449753436217,
        -0.06616092234584249,
        -0.08613649424118025,
        0.03609574035470466,
        -0.044135018079482245,
        0.00016749250778414081,
        -0.037754778344931204,
        0.07964529820369425,
        0.07896887351867994,
        -0.10047369601712534,
        -0.06593312449366406,
        -0.036027963305254686,
        0.09739611905734936,
        0.057740826940711795,
        -0.035168992194862275,
        -0.06133793977860665,
        0.036692589714472805,
        0.07242626053330116,
        0.09317504972534559,
        -0.036224966419839646,
        0.07933508460408646,
        0.03947671211712261,
        -0.004611853041259909,
        0.09760837053827588,
        -0.06653139590879363,
        0.04775502275437698,
        -0.08881525272179633,
        -0.07622549415063655,
        0.086630007895067,
        -0.05728321105532911,
        0.053792525100672665,
        0.021603422296464486,
        0.07353096555841235,
        -0.029716455836479954,
        -0.03866082580281825,
        -0.04846888256882779,
        0.07606727220713724,
        0.02277975099280278,
        0.09764596492987179,
        0.08231287178804698,
        -0.07813286840684679,
        0.010966770181635693,
        -0.08936246069102934,
        -0.09835993781402122,
        -0.09144418156562265,
        0.07731789371614933,
        0.06205114042306076,
        0.07040484884942759,
        -0.034098588650726354,
        0.02530333522204887,
        0.06028555394677629,
        -0.026138342200761895,
        0.015169777854706834,
        -0.06310277094160124,
        -0.08964008253074647,
        -0.05213937289775259,
        0.08374876978275336,
        0.013861389310046095,
        0.09072704710659515,
        -0.008099209830219521,
        -0.04726460626274689,
        0.06247875777023574,
        0.06910396868658782,
        -0.10452974254595507,
        0.03539198682235181,
        -0.088243363386534,
        -0.08286426326216652
      ],
      [
        0.11134909043495221,
        -0.0923316431194354,
        -0.04036283630680099,
        0.11678838616161104,
        -0.00984099790084457,
        -0.07059249000915604,
        -0.06437674784086957,
        -0.049530044552779276,
        0.058436175226066076,
        -0.07001253473144725,
        0.10467732277135917,
        -0.023245662915387152,
        0.11029370085111628,
        0.10198058456413583,
        -0.03791767932919142,
        -0.03783629186634821,
        0.005021952612350617,
        -0.07188842347316518,
        0.05856905738616748,
        -0.08412081757259678,
        -0.09233247638717115,
        0.11140526467501288,
        -0.0395939908901929,
        0.02130035635851419,
        -0.010149684840503756,
        -0.03949676003574035,
        -0.09283052087204798,
        0.08859748379601205,
        0.11868537505065059,
        0.10277488975694682,
        -0.07699568368968154,
        -0.059986236673917,
        0.052256076492775756,
        0.12443390409514424,
        0.011585574259152529,
        0.04071999773323802,
        0.03732818793272738,
        -0.05045401921151446,
        0.010177758482765803,
        -0.03307457028440514,
        -0.04418118524539452,
        -0.087420212418174,
        -0.0333815169887354,
        0.12691605529821237,
        0.013012929717486152,
        0.03869988760257563,
        0.03108724818843212,
        0.11420468965224574,
        -0.007198686908624278,
        -0.03826506147313535,
        -0.030415068866664577,
        -0.03633134854572631,
        0.07538160982413397,
        0.08785766207230748,
        -0.023971636950035846,
        -0.017714584269251436,
        0.01868030999747931,
        0.02057080960255346,
        0.020778090150939028,
        -0.05286484847597269,
        -0.09755607489914418,
        -0.05491707710519736,
        -0.0681708383456337,
        0.011314133806989845,
        -0.09194540944267521,
        -0.08700290501819832,
        0.029664291850167678,
        -0.044830774489177626,
        0.0626205472698492,
        -0.0014681906132059377,
        0.07832649155712594,
        -0.07411564895553839,
        0.0003063864624563414,
        0.0626559181639382,
        -0.09063372144626969,
        0.12508562977714763,
        -0.07003020330976793,
        0.061648431596863784,
        0.10422030423570097,
        0.07261237164143398,
        -0.03406376361774613,
        -0.08054061948110865,
        0.007235740568858003,
        0.08996744887519154,
        -0.04054038317948089,
        0.0886860422485563,
        -0.07370657602728657
      ],
      [
        0.08601308952685577,
        -0.09900940194059935,
        -0.041049481591114684,
        0.09490288517128039,
        0.05844827578230784,
        0.09536632905089627,
        0.06649138051035089,
        0.05366195652515537,
        0.03977800059358247,
        -0.07119111615013873,
        -0.014811875059290967,
        -0.08372682507290881,
        0.05628980738095524,
        0.04880786925775566,
        -0.06432115882334781,
        -0.08419819070290033,
        0.09349947603232986,
        0.05494770300447268,
        0.01900666639371088,
        -0.005942476669974262,
        0.08370293320343705,
        -0.015115552943027742,
        -0.016122894687647417,
        -0.03925065532015217,
        -0.05033967958299994,
        -0.1029502099485493,
        0.03151512845803166,
        -0.017856170611659866,
        0.04136621764982435,
        -0.11775731429500629,
        -0.021908784438119222,
        -0.08298774187564453,
        -0.07297013903996792,
        -0.06028547864921272,
        0.07430270442661131,
        -0.024058716064902154,
        -0.01866433012808187,
        0.022215808675710325,
        -0.06410523840949876,
        -0.09691675402761274,
        0.013370569789951036,
        0.003629039443546849,
        0.018889362106545994,
        -0.0034112881152507137,
        0.07188244596846725,
        0.04484132188451326,
        -0.05793658713497504,
        0.010535401356451835,
        -0.01640280887166962,
        -0.09179025919460479,
        -0.012468318687345421,
        0.008238423465675144,
        0.08346025733110936,
        0.09319301538093847,
        -0.04778919479786423,
        0.028641883136143742,
        -0.08645815269064183,
        -0.09801379739494144,
        9.057060023972188e-05,
        0.0833754817923149,
        -0.06703045128723663,
        0.057014644527162206,
        0.07820294917928532,
        -0.03968695137298403,
        0.04102064425948543,
        0.08113132358190332,
        -0.031089398110208968,
        0.043138562731931805,
        0.05066873423430778,
        0.02047994080285554,
        0.07668267296767652,
        0.0849995836501685,
        0.09860332042785963,
        0.024781687547745547,
        -0.06938000720345273,
        -0.065463982536806,
        -0.0605194890816965,
        0.012277584458244162,
        0.05628324617530925,
        -0.09698125134165866,
        0.04121475869803614,
        0.04907702484774741,
        -0.03101798614924116,
        0.0027252713792893122,
        -0.07231971159651158,
        0.04796266515852211,
        -0.09984663725302295
      ],
      [
        0.1297250417704936,
        0.07138024275744899,
        0.042248215024282776,
        -0.03848354672129999,
        0.09423328269628684,
        0.10949053437792346,
        -0.07166582802421961,
        0.06310489299610407,
        0.07915224861438057,
        0.04773732155354265,
        0.05913356444211511,
        -0.01022588643325351,
        0.10054275946895809,
        0.11503373599630469,
        -0.020715618130477176,
        0.07832101735627035,
        -0.005962375517385947,
        -0.058703151690847645,
        -0.012364042789113992,
        -0.06753908882940123,
        0.0988551532247812,
        0.10506470138909701,
        -0.07780438798143766,
        0.021735515064714467,
        -0.018873938690916917,
        -0.08167655713854093,
        -0.043071900097458864,
        -0.05396184506951651,
        0.07122959784853372,
        -0.10600719444819463,
        -0.061585064331502265,
        -0.012851912006600802,
        -0.07641716737421268,
        0.046328210992952396,
        0.024510783596669226,
        0.07204609942232802,
        -0.06057840877435751,
        -0.04517639573983346,
        0.010351282445134887,
        -0.04093513166752632,
        0.027375784252354336,
        -0.0516157467027745,
        0.05067001923718924,
        0.08529266579091759,
        0.09160924596156565,
        0.10672844357126132,
        0.009853039286849701,
        0.017942049701491086,
        0.09026604938324988,
        0.05753337607378645,
        0.020872358506147982,
        -0.022648176102635056,
        -0.04568748105283202,
        -0.08026884749417104,
        0.08412209352342076,
        -0.06502920795064307,
        0.06086978782073129,
        0.012095189115953114,
        0.09966237894969095,
        0.057761429910559936,
        0.10445755680222517,
        -0.07788456165812938,
        0.0222592048438729,
        0.015449603584002413,
        -0.040440715582410816,
        0.003799974024911043,
        -0.030400593772902877,
        0.006085348318915745,
        -0.10697812288780859,
        -0.012818509790585585,
        -0.011018658717288314,
        -0.04183511059817461,
        -0.021559834417801977,
        0.06684322562020356,
        0.03930874167884897,
        0.019429859845732117,
        0.03164800992890654,
        -0.024010551940829006,
        -0.06280883003906136,
        -0.10409986939645494,
        -0.04467197135162433,
        0.022955723023724457,
        0.08584410626425039,
        0.07071199657724095,
        0.006214096980227439,
        0.10828990772165885,
        -0.005494252657447649
      ],
      [
        0.08796110813653359,
        -0.015726761922034784,
        0.06064017537114482,
        0.11389997281693595,
        -0.03998145660948483,
        -0.06155647264775935,
        0.027436960217543185,
        0.010106515337884628,
        -0.027084951200503315,
        -0.09952494270467163,
        -0.014497974580787516,
        -0.017699280614052553,
        -0.011758346499089412,
        0.08950706367727024,
        0.018016280509774704,
        0.06118928055664451,
        0.0888312459027517,
        0.05849324753941568,
        0.01649925955467643,
        0.056838676923161496,
        0.039578487473365356,
        0.03455943967065818,
        0.032004827431875334,
        -0.021219851211213236,
        0.028688223225523043,
        0.028583764489798547,
        0.09412793706218413,
        0.06053928649617677,
        0.09287225063824806,
        0.050691058374919856,
        0.07336799922988836,
        0.02102119383322307,
        -0.014572325010966275,
        -0.04079155103622297,
        0.04698073210540541,
        0.0795931746538854,
        0.011710878948829426,
        -0.07453590037009006,
        0.07013561716237561,
        0.00338732077119911,
        0.0006882144092130618,
        -0.09522009111559511,
        0.005949276609544669,
        0.06881577609350703,
        0.007130049793646859,
        -0.02925330240950964,
        0.03310773590639466,
        -0.08746395589865805,
        0.007235380341935061,
        0.08736297272372949,
        0.04638637855699404,
        -0.020939840124285198,
        0.03961713866867918,
        0.025580638070206232,
        -0.051533363916904086,
        -0.052959094969817294,
        0.09081249162300675,
        -0.04974426307731246,
        -0.09174803595647767,
        0.07269372082202036,
        0.008919135571395127,
        -0.028245404833182785,
        0.015358915055869712,
        0.05115676970948801,
        -0.07110393892356318,
        0.036851899464974726,
        0.04481645132361721,
        0.06751100979274505,
        -0.04934451484314499,
        0.02433930519628313,
        -0.05719330972838296,
        0.013082992068684938,
        -0.07021861835772024,
        0.06576870420891534,
        0.07859435770874776,
        -0.02498050162850821,
        -0.05951222011708839,
        0.10006227201024238,
        0.04467293836405663,
        0.0756259359677541,
        -0.0975288257792344,
        0.0882069520648584,
        0.029095918168154787,
        -0.03940425069254971,
        -0.012829761726666456,
        0.05777610370720697,
        0.06250256083100333
      ],
      [
        -0.0908447100050472,
        0.020673106390339292,
        -0.08625440350155647,
        0.08828521597789694,
        -0.017487321768906484,
        0.07585410573056833,
        0.04363785226414486,
        0.016461945629554026,
        -0.05679781547111664,
        -0.008767411659346903,
        -0.09286059764138005,
        -0.07777768044353131,
        0.035979199165153394,
        -0.0458194692398528,
        0.04968053283770348,
        -0.07171935164670341,
        0.038611820738932184,
        0.038541200357308944,
        -0.06585513139674161,
        -0.09269513645294059,
        -0.035682045615712255,
        -0.008101718012662117,
        -0.09099815994808769,
        -0.06667941031582773,
        -0.09627873564638298,
        0.020690752453047842,
        0.08263420323080686,
        -0.06074685886467033,
        -0.12236813786095446,
        0.04587763397376398,
        0.05969398178741845,
        0.10012375495241634,
        -0.002111653590145818,
        -0.05275886903840107,
        0.0693268699444458,
        -0.08163103972272909,
        0.03822331380388444,
        -0.08746422499479739,
        -0.021420321213335133,
        -0.010562420293649549,
        -0.037331910317306864,
        -0.07390728286482781,
        -0.06740253579736316,
        0.045094188956647026,
        -0.0365057313595605,
        0.012436158868649147,
        -0.06153395893438485,
        0.02551277567049977,
        -0.04979363111367153,
        0.022836367324024692,
        0.08010480125793158,
        0.10417061754869844,
        -0.09734744492873174,
        0.06004575792867539,
        0.05888261382637808,
        -0.05516397357502947,
        -0.03585424521759015,
        0.015091092728298387,
        0.08996495420734146,
        -0.023597735943087218,
        0.07443327543481303,
        0.05541425875832118,
        -0.09347635211911505,
        0.08813126306336948,
        -0.10394390384647606,
        -0.08123800268419853,
        0.035700505467182266,
        -0.09491736598008085,
        -0.02582752558802133,
        -0.07801000035218199,
        -0.006696331049794512,
        0.07286401707333827,
        0.08703131711426243,
        -0.09952763439078408,
        -0.09411751499052166,
        0.046037966973392144,
        -0.09798316888162809,
        -0.050698694017369,
        -0.08295154495902592,
        -0.09079901802967974,
        -0.10608487997217639,
        0.024825689570279107,
        0.04809174690152962,
        0.04003232931474274,
        0.07038464747203685,
        0.031080679730174435,
        -0.026230385181925123
      ],
      [
        0.055103154465550544,
        0.10676119531949106,
        0.044508287895230085,
        -0.04126274417289657,
        -0.08955961528585316,
        0.10660086114659781,
        0.023980971291162372,
        -0.027030003685927263,
        0.028286062034183317,
        0.025861021242756858,
        0.020697628817043737,
        -0.09423127397679346,
        -0.019414198788474297,
        -0.0016838618822034572,
        -0.06189565657375553,
        0.09814069670791885,
        -0.008752515669076267,
        0.04513898945194615,
        0.07288452538616155,
        0.06211712578797141,
        0.061542015443367105,
        0.05988925467618264,
        -0.04763428673353162,
        0.1012817873671154,
        -0.07367068074689771,
        0.08991076366941197,
        0.07696101266614491,
        0.0754752602511597,
        -0.07156281272329401,
        -0.09236406750267763,
        0.07495356861597169,
        -0.0077029731713378,
        0.000227834370072161,
        0.12188200197955734,
        -0.09542954077180413,
        0.006531020795222415,
        -0.00893746574901961,
        -0.07917393895226256,
        -0.02393731554121997,
        0.05438337604639982,
        0.09328728095414102,
        -0.09895031761833407,
        0.015516413749839674,
        -0.0627141900721507,
        0.09667305623212284,
        -0.08437312421699825,
        -0.10006960867738696,
        -0.002746021496132023,
        0.062202184488200536,
        -0.046360315943003445,
        -0.07128744132906127,
        0.06440458499062736,
        0.06565577571549976,
        0.08067013980498808,
        -0.02456504181110765,
        0.000707576456647357,
        -0.04317571876120511,
        0.013633023133854913,
        -0.0368792035634313,
        -0.03220644843610094,
        0.06603760475830903,
        0.09779262773987799,
        0.03965021624987801,
        -0.08439099787466146,
        0.032656530885749546,
        -0.005693492276218119,
        0.10421175269243221,
        0.047017474103077696,
        0.07175079685802459,
        0.04257278751495816,
        0.00874422458906042,
        0.08504545221017026,
        0.07107161313459832,
        -0.04791406767482945,
        -0.07350434900534121,
        0.0018754860545847141,
        0.0045173314352069515,
        -0.08484382750839166,
        -0.03281216585462898,
        0.019101418326789712,
        -0.09324051627400469,
        0.07110160276462893,
        0.03673899238759685,
        -0.03997169064926394,
        -0.039540090323780745,
        -0.02782217239431258,
        -0.03494288055570878
      ],
      [
        0.017041174023021688,
        -0.007855114973704485,
        -0.012870918153513511,
        -0.09327922223387423,
        0.08230939292397717,
        -0.05479057659476148,
        -0.04330307091853545,
        -0.09993894876877084,
        0.09528261569609141,
        -0.021476948892466183,
        0.06746914430405475,
        0.09113170547745401,
        0.08496853707294093,
        0.045799512542185034,
        0.0874121570756083,
        0.06874431308325551,
        0.05436481569620425,
        -0.0927757962554384,
        -0.03062352055262378,
        0.0018290704537668688,
        0.08712400657772995,
        0.052880458380969594,
        0.03614724003476253,
        0.05376323149365731,
        -0.03092612030653955,
        0.09452296305767248,
        0.029481503748786567,
        -0.020880046502245668,
        -0.03890361627915063,
        0.10867626331151647,
        -0.0036923136082533,
        -0.07031299687429658,
        -0.11169074103201361,
        0.015967955435881538,
        0.009179916644058173,
        0.08740044195528143,
        -0.07171245874591113,
        -0.01978676266393339,
        0.05032327974385285,
        -0.10959609124385938,
        -0.10082614391036514,
        0.005757662650909438,
        -0.06333117802408607,
        -0.11666235349468881,
        -0.09247781570952884,
        0.022290003485783524,
        0.0058518246796835606,
        -0.11916042050042223,
        -0.10832187165360462,
        0.08254823934244304,
        0.02040740013577869,
        -0.07184276316411445,
        0.07727063805329139,
        -0.10818835236099332,
        -0.05139927365753755,
        0.0526244869716212,
        0.03019677700611175,
        -0.04853924699628601,
        0.08443799220066288,
        0.01799441569480548,
        0.06979668653750587,
        0.08418281714539892,
        -0.045014945139180355,
        0.03697683161000809,
        0.00961256818151557,
        0.08808671963529505,
        0.06426603079738218,
        0.04839704228661887,
        0.06730289184858296,
        0.10636591607859515,
        -0.05323578267817959,
        -0.06400324581828082,
        0.05289007868732004,
        0.06162503094990459,
        0.003061279569404888,
        -0.04121631881918919,
        -0.020629623696379117,
        0.07989439446353166,
        0.06306844604006022,
        0.013713012273493225,
        -0.10493290125881957,
        0.06975297697573071,
        -0.014403208705250468,
        -0.06642702129482406,
        -0.047750588053725194,
        0.03601110421854904,
        -0.10945906857149566
      ],
      [
        -0.10357558051869148,
        -0.047342778900313784,
        0.07065942095754915,
        0.0436983636130468,
        0.09490513481774042,
        0.00030492134686343906,
        0.009634255092859713,
        0.005940085774885426,
        0.0007077735634607623,
        -0.0024068489390279162,
        0.05523192586125189,
        0.0949626255320219,
        -0.026458629094498372,
        0.017073072998757922,
        -0.04673616585856246,
        -0.054202974671006716,
        -0.006923573554280495,
        0.008093294260460359,
        -0.009226854940187,
        0.0907764359383754,
        -0.08202289707554813,
        0.02259069685751478,
        0.1027086158112605,
        0.04991473198722836,
        0.013277449840033328,
        -0.02874254308324842,
        -0.021376333836184713,
        0.09355489700986892,
        0.07102728717470302,
        0.03332215061678669,
        0.08091124934640585,
        0.0898954843277343,
        0.05376716770344552,
        -0.04228928715231715,
        -0.009418657943948843,
        0.06305040096218711,
        -0.029396217941931282,
        0.052359406956164554,
        -0.005800922295378745,
        -0.0405360856514414,
        -0.01710559114137352,
        -0.0838452110705789,
        -0.04165148985785095,
        -0.03579016368465225,
        -0.12061259432962924,
        -0.07535345626581712,
        -0.05174323092719622,
        0.06077841973040726,
        0.006179374292076763,
        -0.04920285945305947,
        0.10142409464754815,
        -0.05459161676711073,
        0.001975320616297962,
        0.048750225444233734,
        0.027434134737979385,
        -0.028126681696774142,
        0.05231875821775981,
        -0.006349264546125724,
        0.04590365417167583,
        -0.0032049979425882824,
        0.09861536852015408,
        0.04633132223577789,
        -0.10529865098516528,
        -0.07966199272099538,
        0.09995324726070491,
        -0.061049657086340046,
        -0.10219010241661318,
        -0.05288867240877647,
        -0.0043320039471186934,
        0.09595185604959812,
        -0.020487037210064157,
        0.04790134271970031,
        0.07166001489183675,
        -0.09204390628344758,
        0.02398049609257845,
        0.08793016324634417,
        0.010629324801902755,
        0.005333160944074252,
        -0.03293947368216458,
        0.09249615953001102,
        0.09637491773833973,
        -0.08820115367831072,
        0.00803754757645331,
        -0.017293898326551878,
        0.03404937326938587,
        -0.08515221884215278,
        -0.052741244952889725
      ],
      [
        -0.033708424132085475,
        -0.0020666769363259533,
        0.07050333707433579,
        0.07982656633839282,
        0.06624628093963823,
        0.0409649371624026,
        -0.08371458278373498,
        -0.021276222144679426,
        0.03903535010950465,
        -0.037131481644253485,
        0.009272275033912956,
        0.09110841080946895,
        -0.08089067982235591,
        0.07861167706898452,
        -0.07860874689579729,
        -0.02022434428259595,
        0.09261137710939651,
        -0.05445936044579891,
        0.013861609992292077,
        -0.006933929305104163,
        0.08631518041660757,
        0.11011425221098975,
        -0.04503955007930769,
        -0.0002467795052041207,
        0.08477700461368012,
        0.010035775202163063,
        -0.06092674300253067,
        0.055650391308890795,
        -0.033953878586232535,
        0.004345799343526557,
        -0.10505455434617075,
        0.10621318860306825,
        0.04400601904286976,
        0.10360362093841137,
        0.10037436208561785,
        -0.04919745681443223,
        0.009155102033578631,
        -0.011821112598409336,
        0.05858316110359007,
        0.07398717110999967,
        -0.055708440602468316,
        -0.04833994031576814,
        0.0540357115005342,
        -0.010957596304376335,
        -0.07708410524333512,
        -0.061450648264929665,
        0.01355005176551912,
        0.02785850667643789,
        0.10948069324629933,
        0.01750847668282551,
        0.024525323522517555,
        -0.0727965029849355,
        -0.016730513692438744,
        -0.04670355869608851,
        0.05039967076754487,
        -0.040519946557112926,
        -0.06018128924685098,
        -0.025473550508104178,
        -0.005545208362308488,
        -0.03450673296477766,
        0.02278855805335283,
        -0.06832389501938882,
        0.09335326116602385,
        0.04152423403102674,
        0.007522207217614309,
        -0.09474818644855981,
        -0.03626794653839678,
        0.040743492471277586,
        0.031089932692510973,
        0.06618527839360755,
        0.08425062989208788,
        -0.0395703699963459,
        -0.0013436295618875114,
        -0.0368004201301993,
        -0.07974307594374687,
        -0.06271645517041685,
        -0.05219306008373453,
        -0.08602193294612114,
        0.008239608666107453,
        0.044888034820566095,
        0.014849616130682624,
        0.04057779567148149,
        -0.05708268329985232,
        -0.06421722584796974,
        0.016293417812452676,
        0.08422975586702192,
        -0.014935894387686546
      ],
      [
        -0.1178443339150777,
        -0.10479418418621392,
        -0.048234710299024874,
        0.022660832721397402,
        -0.09353562281820552,
        -0.06113347818351561,
        0.03426629533065664,
        0.1013180172837304,
        -0.03660034569638899,
        0.014565597892747934,
        -0.002273147771742218,
        -0.10629196305624376,
        -0.03697320318190032,
        -0.07881730409409189,
        -0.05919716162804995,
        0.05498254748587875,
        0.03361521567205229,
        -0.10708103505054284,
        -0.09808055281592108,
        0.038156232496045724,
        -0.08724780383486747,
        -0.04353417238597481,
        -0.04915059291206426,
        -0.0979040998502347,
        -0.09996536332250054,
        -0.07772631926945842,
        -0.021800512371714816,
        0.09295108469146865,
        0.030202573559993645,
        -0.06271952516418319,
        0.038666887565068205,
        -0.050084866694042884,
        -0.004434085643488452,
        -0.04927880637107626,
        0.09625419850330026,
        -0.03222523295921454,
        0.06481620286979481,
        0.02935745404195005,
        0.07103336773162039,
        0.02168564075848776,
        0.0775180235492192,
        -0.020320054222815232,
        0.0298030371621773,
        0.020085733845876703,
        0.006415516922842555,
        0.010384265961856454,
        0.00717015858472934,
        -0.026572879698426095,
        0.07536394938117381,
        0.017166456145352244,
        0.009920804296138785,
        -0.09785599586565163,
        0.00040087550659044274,
        -0.06976028383372809,
        -0.06859698801611297,
        -0.021755841625816206,
        0.009442744873960747,
        -0.05639492282739371,
        -0.049883983253338295,
        0.006541566421435071,
        -0.0076056138983567065,
        -0.020727264425833395,
        -0.09532238806978713,
        -0.027278774394380163,
        0.03297972132281495,
        0.009631852517840753,
        0.00862476855310701,
        0.07368652107377655,
        0.047827930537309285,
        0.03897870632474425,
        -0.10039922820885898,
        -0.04112169425890168,
        0.039094302460662346,
        -0.06992059537131537,
        0.08861484937008972,
        -0.09184805035049007,
        0.0812526719956012,
        -0.06264777897525156,
        0.0730604518486262,
        0.07263588273777719,
        -0.03640119328274221,
        0.08184262384738857,
        -0.07409538559077156,
        0.07464351470650725,
        -0.026868141148229142,
        -0.014847197756750282,
        -0.08344428808451604
      ],
      [
        0.01638043991586611,
        -0.050941656997252914,
        0.032602265944337294,
        0.05906095734582143,
        0.02285494646878312,
        -0.11029866604753302,
        0.0975639693941496,
        0.0894373844344487,
        0.02926055312859593,
        -0.027911085678309785,
        0.009153946286725612,
        0.08480707324946932,
        -0.014061108453816548,
        0.05271938238262038,
        0.023580566411626303,
        -0.02260341177220121,
        0.09263378555476255,
        -0.018945347605465738,
        0.014640132325274863,
        -0.09388614050930617,
        -0.011453697652659512,
        -0.09916378672965129,
        0.04110196502046903,
        -0.10578190647914085,
        -0.09884301652560902,
        -0.08312913804933633,
        -0.07759359973220004,
        0.0017313415853429067,
        -0.04243159798421082,
        -0.04240469684140717,
        0.10015875674468905,
        0.08925117441623844,
        0.024646029077294483,
        0.06312303183028845,
        0.06706559572902095,
        -0.05415243181017721,
        0.06478101980243751,
        -0.05543221226042657,
        0.015793765902343625,
        -0.0351673281618356,
        -0.07720813308821087,
        0.05801788404266293,
        0.08979537059027201,
        -0.048270878985460404,
        0.06560494992108075,
        -0.032916336249035394,
        0.0341980347565533,
        0.09868266687760062,
        0.05871188471806594,
        -0.08505006387194762,
        -0.017183809780360604,
        -0.025683167107658195,
        -0.04326570466267072,
        0.06557629451271663,
        -0.01665147128887541,
        0.039361224641947384,
        0.02403511005008845,
        0.005353329172247433,
        -0.09445571431215562,
        0.03591319020834138,
        0.08317696453291872,
        -0.0702536679336881,
        0.026909809660121322,
        -0.0026103527864952654,
        -0.03400142684267076,
        0.042652873925351206,
        0.10263006505886978,
        -0.1025160229759797,
        0.0851499037891978,
        -0.024526483169486097,
        0.07203746475369054,
        -0.06971531001286926,
        0.04641954649305735,
        -0.08815042793521671,
        -0.03523175351440679,
        0.09681599153571152,
        0.03356557235414889,
        0.06162094956578402,
        -0.008398847742606224,
        -0.006050946136599188,
        -0.00280428679673705,
        0.05783105298497477,
        0.046412984122172596,
        -0.06551480055559832,
        -0.013682618327716188,
        0.008052839408807529,
        0.015099646129768749
      ],
      [
        0.07719117504862527,
        0.06896735457459856,
        -0.0817976115445063,
        -0.03746253811404875,
        -0.08367937629238242,
        -0.11205267693053929,
        -0.09107639608132193,
        -0.0718310931622167,
        0.05398467950778812,
        0.02842423471148678,
        0.05524681178937981,
        -0.04150666755953992,
        -0.08460689395938278,
        0.08694075373079946,
        0.07290254510730398,
        0.08297676801636114,
        -0.1047054375698378,
        -0.023668612389419474,
        0.010580826147016064,
        0.050560434712897104,
        0.07738042677977741,
        0.0071348495688298924,
        -0.02882800419517399,
        -0.10361739979540906,
        0.0639432560301367,
        0.10370648350082477,
        0.08670773223525366,
        0.03477711402080264,
        -0.056841713995655005,
        -0.04359041891542431,
        0.05057349392384084,
        0.09656199050141605,
        0.08078787036269869,
        -0.07636797242776827,
        0.014799029807190563,
        0.003896599557553538,
        -0.018271917652044344,
        0.06370189680815576,
        0.09760485337671938,
        0.03856867528102838,
        0.0334851675311373,
        0.03768572313219185,
        0.032177989331928156,
        -0.009412667960416883,
        -0.08417505995709099,
        0.05958624984147259,
        -0.08065495073071721,
        0.015290252689279974,
        -0.02687090222816179,
        0.02869360030372297,
        0.023517891522547713,
        -0.0030009882788983133,
        0.10381569374536656,
        -0.059834981253491806,
        -0.11482254924445746,
        0.08904454226668866,
        -0.05070937556726017,
        -0.04560826836197951,
        -0.016907303053539786,
        0.01814609951680986,
        0.09739762386509462,
        0.04447634260092939,
        -0.04959005830713979,
        0.006844617845363303,
        -0.010911159075237008,
        -0.005518031141706357,
        -0.015830998183768676,
        -0.07123558221723644,
        -0.0223996798452936,
        -0.024123820120705367,
        -0.06440021436766429,
        0.06792147851930158,
        -0.03000651033800013,
        -0.07111233232836014,
        0.01433239208382757,
        0.056664568317404074,
        0.06012937852106108,
        0.026191939592205497,
        0.04854529637387342,
        -0.03590607286420093,
        -0.08040949756442946,
        -0.05666556784163829,
        -0.03544914227707306,
        -0.04711206786295016,
        -0.008845060820212705,
        -0.0768574834725948,
        -0.08032933511374421
      ],
      [
        -0.04554554565256378,
        -0.06343343805683664,
        0.06828821251561751,
        0.01079178893589659,
        -0.06240662655890629,
        -0.012538168608838647,
        0.08185839926520619,
        0.016488671337263325,
        0.013147233279444325,
        -0.01954856463471516,
        -0.06059634723389465,
        0.027638611666291283,
        -0.0885000865105821,
        0.06471394063876766,
        -0.09287127609162134,
        0.0561665741620454,
        -0.021939143369421675,
        0.043174541331249164,
        0.0261923824670499,
        -0.07540237768819955,
        0.011069462061218203,
        -0.08865483811416176,
        -0.05481235953623182,
        -0.024733111839212625,
        -0.04568864398135052,
        0.034867802133191135,
        0.1045820966649474,
        -0.03067720004739167,
        0.07604419470348589,
        -0.057392551286301455,
        0.04570830944599343,
        -0.03118279995862942,
        0.014438353225358254,
        -0.0828342720487907,
        0.07038737230238447,
        -0.06197039679485855,
        -0.007307000521269278,
        -0.04440541696664361,
        0.0678173526340412,
        0.020995626161586123,
        0.02680560856250096,
        0.05480163601519192,
        -0.04925081316687389,
        -0.08884591266905796,
        0.07550887618756773,
        -0.037292438469242836,
        0.06736538543199354,
        0.10300268658521314,
        0.031561210703848375,
        -0.08361543732507828,
        0.07718029065932813,
        0.029941184010001228,
        -0.05422954597315799,
        -0.0616342030667446,
        0.006103562956636557,
        -0.0772254078394472,
        0.08885662957971191,
        0.04620841501597263,
        0.06853020570303446,
        -0.024518344107466835,
        0.0902084871091337,
        -0.0784501998907725,
        0.05230543066127971,
        -0.05299911034443012,
        -0.1064237493873091,
        -0.08088137996325864,
        -0.06321458136957467,
        0.05643971618608963,
        -0.026136128105232165,
        -0.0033291343649299475,
        0.023996909275970264,
        -0.049794639351638144,
        0.029668853619027394,
        0.04249928488747328,
        0.09030713047153632,
        0.0021601260059690482,
        0.07614432631674321,
        0.10068021915050615,
        0.05777795499956906,
        -0.01686155839274564,
        -0.04873833967737298,
        -0.08731625223346548,
        0.07190687759818469,
        -0.07932237008552173,
        0.01363525229379703,
        -0.008694353768177501,
        -0.09664928282915941
      ],
      [
        -0.07944329800284113,
        0.06469878316108706,
        6.322750348819198e-05,
        0.07878997680329182,
        0.0867546870361499,
        -0.09873072991463616,
        0.03752682515780238,
        -0.10118263277948264,
        -0.020000566614340083,
        -0.019546162617068437,
        0.08737322735657006,
        0.024493095796516387,
        -0.07854351996443008,
        -0.013998946924312033,
        0.007420113594775638,
        -0.07901342121965456,
        -0.033177848632772136,
        0.07677432445701118,
        0.08090258481674321,
        0.0572048502541695,
        -0.10556286777436441,
        0.08477009224434447,
        -0.014815579211273864,
        0.07371224856135096,
        -0.0705602970209896,
        -0.07527185753629603,
        0.08641659041100204,
        -0.045966256530122145,
        -0.12364608173896305,
        0.012594928530041096,
        0.09711669197579761,
        0.07397685930724769,
        -0.04379551816293007,
        0.09732335096310286,
        0.06026333692857195,
        0.07408399648997868,
        0.028375386372418474,
        -0.022372509063210838,
        0.09034162686539685,
        -0.015724029726184138,
        0.08331566774400063,
        0.008111101810469595,
        0.08628531931279303,
        -0.02536003785370476,
        -0.04941587460642127,
        0.017582793212895898,
        -0.038513106739069346,
        -0.09457464649085726,
        0.01568791489599596,
        0.09217369446073968,
        -0.05497164853235774,
        0.07888954397248113,
        0.06314961614836305,
        0.05451815436196845,
        -0.030071795019829425,
        0.09723594518987888,
        0.05128982040389607,
        0.017330904800167326,
        -0.08156005059814116,
        0.013271674699816504,
        -0.10931075031131746,
        0.0862006915201266,
        -0.048947070484530016,
        -0.02859988033815982,
        0.011066859914384532,
        0.023898785648369537,
        0.019003061808758586,
        -0.003230802176935363,
        0.028794789743696772,
        0.07325356351224542,
        -0.012493309253766965,
        1.7012134747043258e-05,
        0.0665130314737929,
        -0.11039360286764799,
        -0.07271595702307214,
        -0.0496451333424111,
        -0.06130845924088718,
        0.08511154598149655,
        -0.07589597786758849,
        -0.08569391516236047,
        -0.04257056082129553,
        -0.0007497267134065901,
        0.06562679749671663,
        0.10645016191096615,
        0.07338124519285487,
        0.021151808861360793,
        -0.10041252871203764
      ],
      [
        -0.11204735192752076,
        0.024577547109282345,
        0.05733211840782581,
        -0.052992233956199904,
        0.09165702288641889,
        0.008063704599278562,
        0.00712567397023049,
        0.022174119982873147,
        -0.09562584313656115,
        -0.08154049053635185,
        0.0823675824925478,
        -0.05769881405481175,
        -0.08886136480734576,
        -0.04826082131396526,
        0.03706975107116576,
        -0.055108659942943596,
        -0.07232881465985079,
        -0.06198085589228736,
        -0.014859885000824523,
        0.03405268588285955,
        -0.045649695383180124,
        0.07149440643754411,
        0.10301298275251848,
        0.06566198377518045,
        -0.09084933729049946,
        -0.040496197440396044,
        0.09086278563684617,
        0.07702266165588599,
        -0.07474890610572049,
        -0.02869299159648728,
        -0.027435184860393386,
        0.048685199098517075,
        -0.11399182509047556,
        -0.05904218463231791,
        0.054353736419022025,
        0.08130671148583245,
        -0.09864256362338518,
        0.016928852814441408,
        0.029119951304555015,
        0.08041484972873857,
        -0.018414649737645613,
        0.10208876636275464,
        -0.08085669169600848,
        -0.09168043298844951,
        -0.07535278075888667,
        0.01142643527871776,
        -0.08233389556271656,
        -0.056506751317225,
        -0.08303280613954049,
        -0.11752151675553282,
        0.098621275376288,
        -0.04039578226911694,
        0.09656073683758891,
        0.048026352428193274,
        -0.07209215921540663,
        0.07961716119652484,
        -0.10477632681573387,
        0.09678521328662429,
        -0.10187310473112564,
        -0.05253232995928751,
        0.011304168662016804,
        -0.10519219907604327,
        0.04081938206804794,
        -0.08878589671926658,
        0.0677938689923241,
        -0.09829000270009433,
        0.003346795345259287,
        -0.06227298099793618,
        -0.04527173049809241,
        -0.0012239851744767982,
        -0.026172835711267963,
        -0.02315065258215755,
        0.03288296257495003,
        -0.06084050317643437,
        -0.06826012146735246,
        0.014345769197463882,
        -0.04351457998113115,
        0.0892402814076501,
        -0.015656615041655154,
        -0.008376651943981822,
        -0.10365783573629164,
        -0.10318228209371405,
        -0.08641702917968441,
        0.026550844876359076,
        0.032411224489833294,
        0.09346996517369632,
        -0.017395663864094926
      ],
      [
        0.060935705426513526,
        -0.030163753889696266,
        -0.0826945104126331,
        -0.010962724705639831,
        0.047662188339853535,
        0.07118133650960819,
        0.1012390305777741,
        0.07507132920171507,
        0.01725628385675645,
        0.0197126945377169,
        0.009534834762060693,
        -0.0022721319928282104,
        0.04295180422079262,
        0.023126177586284158,
        0.08116373507488067,
        -0.0031173744842488567,
        -0.00040253790988684784,
        0.0800161280066498,
        0.05154296658841188,
        0.014767463258196646,
        0.019866160267438593,
        0.07018752340038599,
        0.024818906002751124,
        -0.05104823799696123,
        -0.04039546352908529,
        0.022727392423920783,
        -0.09691245164163999,
        -0.009092163322907127,
        0.09174983483430875,
        -0.05431488736201431,
        -0.008792651185554352,
        0.0433033317266348,
        0.10540365187945118,
        0.055257491624894385,
        0.02812708045603884,
        -0.024650122934844896,
        -0.012156018582271349,
        0.031149852382284713,
        -0.029353439158158683,
        0.06497868506782994,
        -0.10001595721819206,
        0.05499873349515642,
        0.060610131497191376,
        -0.0294687874663508,
        -0.09357880585914195,
        -0.031141289295478203,
        0.019295733825817712,
        0.071030387998947,
        0.09001082927620252,
        -0.057052325295227406,
        -0.08646887198032828,
        -0.07964531085434098,
        0.105526030294402,
        0.032579153268758494,
        -0.06917174303100866,
        0.0513951466678512,
        0.10275999995882348,
        0.02530908872422074,
        -0.056967608435396354,
        0.09983653813348144,
        0.046693907598868295,
        -0.06794228311934909,
        0.07074767876597343,
        0.0012623907792245956,
        0.015941077614695816,
        -0.02677391924912842,
        -0.043822804540314064,
        -0.017051899705846744,
        0.005658481091359613,
        -0.008054820588459646,
        0.07900729733215953,
        -0.09125555461289014,
        -0.06451210572273065,
        0.08897116388645698,
        0.023115960572331683,
        0.04569260073118148,
        0.02780778964104757,
        -0.05299003874164518,
        -0.022246057575150403,
        -0.05964435018367072,
        -0.07199569116608107,
        0.1072363029076026,
        0.05457233525627173,
        0.08135493633247237,
        -0.10448384476134419,
        0.04608997131287797,
        -0.03929807712046569
      ],
      [
        -0.018422977660361682,
        0.03406914754907232,
        -0.11004140726524678,
        -0.03360151545410719,
        0.0062417368993487425,
        0.07448489697316217,
        -0.0023734592506211936,
        -0.04174704103720897,
        0.018301938260436777,
        0.008391110680276665,
        -0.05498045555140854,
        0.007146199401519381,
        -0.05241799336412713,
        -0.111492851720739,
        -0.04588320603443999,
        -0.09602993608166144,
        -0.008702797259905302,
        -0.010334488141701141,
        0.06452229740463379,
        0.04190970955573876,
        0.04740134432581174,
        0.09931425435330235,
        -0.05177110124707603,
        -0.02843483708669879,
        -0.05803488774434258,
        -0.08558909809411906,
        0.002805850966772254,
        0.0024278837734349155,
        -0.08573758618357703,
        0.08547373807036306,
        0.10069513485217532,
        -0.09409962256203505,
        -0.12203702467121452,
        -0.10819907534691167,
        0.04902965946597141,
        0.07490324990509901,
        -0.09407602921786991,
        -0.10626499841414445,
        0.006001117668742703,
        -0.03929740444969805,
        -0.1079458819578507,
        -0.10587279716824875,
        -0.07195655736013919,
        -0.07712714639957717,
        -0.053973350936523355,
        0.006301942143086433,
        -0.053826299119436476,
        -0.06771410750264077,
        -0.07360524552359542,
        0.0764094860111906,
        -0.0587686202343219,
        0.009291718409900613,
        -0.011303451987385166,
        -0.03784129506228841,
        -0.03152322834482883,
        -0.11512683811080783,
        -0.07106357489966872,
        0.026852155587633705,
        0.055546989315739634,
        -0.06102932150023972,
        -0.07052951744510609,
        0.08694735565428022,
        -0.10134695554330667,
        0.06336576946401379,
        0.08099136555543603,
        -0.07687609418558337,
        0.07029030364202006,
        -0.07499926292563128,
        -0.09792054922876926,
        -0.046131255277835966,
        -0.03294199697928678,
        0.01919010530044064,
        -0.012318640024807316,
        0.06295968700713658,
        0.03531256282189469,
        -0.09976060201705092,
        -0.06378803437910197,
        0.05083002244100492,
        -0.08255821906817984,
        0.09547236521971497,
        0.06497341601095678,
        -0.06116506364772001,
        -0.04807336572785753,
        -0.05329304572018771,
        -0.019052881603356737,
        -0.05674710024580302,
        -0.10228941644806155
      ],
      [
        -0.04171158702915148,
        -0.06344015678104535,
        -0.02570897833716726,
        -0.007256951546895002,
        0.08428614915697541,
        0.03671509332457354,
        0.028778410447833143,
        0.07942991776990273,
        -0.021648064075710984,
        -0.009278403708201629,
        -0.04824223541188313,
        0.0740176881480482,
        0.08216189761117329,
        0.09053015664308049,
        0.027291590663017968,
        -0.07946201600847153,
        -0.08671084973267269,
        0.07195682534935688,
        0.09085235418603732,
        0.0159230794951554,
        0.09281029124337889,
        0.09639530316869567,
        0.054623343135505674,
        -0.02651701201420915,
        -0.009547797513866736,
        -0.03147820826286451,
        -0.02199336003201301,
        -0.006147642785629592,
        -0.1026225792421541,
        -0.07348291204246431,
        -0.0711761863756712,
        0.0157170112663909,
        0.08826097145342204,
        0.0554220811964405,
        -0.07521176414573781,
        -0.008515598027245058,
        0.02762537723919799,
        -0.07732453754680858,
        -0.0878507780116657,
        0.025403704067823173,
        -0.054679038608511504,
        0.031053283313639594,
        -0.0625242738107634,
        0.08298504622318303,
        -0.03877021083169588,
        -0.012100401616553031,
        0.011167072690770467,
        0.08770468215479409,
        0.09809347118371894,
        0.08231469541682665,
        0.04039953955407984,
        -0.0901791831864165,
        -0.06593007475843234,
        0.00800453709845509,
        0.11160642322130357,
        0.05606365082084136,
        -0.06525199664082805,
        -0.028247586817316407,
        0.09975008287255625,
        0.0017545444593393203,
        0.07996251740274234,
        0.07672491084611609,
        0.0705217090500138,
        0.0270193899871566,
        0.035648349641554465,
        -0.03401138567086553,
        -0.08043819274773509,
        0.09613480302741838,
        -0.10016588666383947,
        -0.048818604483050906,
        0.024299288007584675,
        0.0996433875288521,
        -0.062116332730609417,
        -0.05424901144002653,
        0.07456304787259915,
        -0.025727960850736392,
        -0.020798456717682916,
        -0.02857986386397733,
        -0.09624709079826226,
        0.0956742016108993,
        0.04270091451670177,
        -0.10553559276037541,
        -0.08504103982851864,
        -0.07795147824726645,
        -0.026325069979363385,
        0.08573096169986134,
        -0.0756239960203677
      ],
      [
        -0.07254499247235537,
        -0.042753826565407035,
        -0.006501314745710873,
        0.08646585998987333,
        -0.00046255591981398905,
        0.08691787382309106,
        0.00033776750809762863,
        -0.01594495395476176,
        0.0761548519082955,
        0.008814518290648901,
        -0.01361039534127293,
        -0.006177490672849524,
        -0.027142838694527712,
        -0.01173079202764414,
        -0.10339729416503397,
        -0.06382667717243146,
        0.04643822701485013,
        -0.0921472417121011,
        -0.06794850253527347,
        -0.08897167492022483,
        -0.029400340350479386,
        -0.10499268492238913,
        -0.02730911961446977,
        0.019338201169041527,
        0.038443557917262644,
        0.07756510013066313,
        -0.08859392473724265,
        0.030823872788232832,
        -0.054015100699262596,
        -0.05399199919315876,
        0.01993464478476306,
        0.06682161120523403,
        0.029191076294363027,
        0.08710949197943,
        -0.10144387040943253,
        -0.04140924297171738,
        -0.003679900357565347,
        -0.10164734984917491,
        -0.10334689746993654,
        -0.02481807791424507,
        0.013189875227633782,
        -0.07642707025455661,
        -0.10834595226500617,
        -0.04258721942506735,
        0.06525317950646664,
        0.007348552559848088,
        0.10469178009744383,
        0.02101008982357933,
        0.06735746139232257,
        -0.011185506191467243,
        -0.0027674529347676232,
        -0.023719459050264118,
        -0.09500185346359863,
        -0.09247171862693787,
        0.02633671036442038,
        0.06706741569350404,
        -0.09993222164764227,
        -0.0757322612049227,
        -0.03897177686460182,
        -0.03906927214330576,
        0.07599478780922934,
        -0.05306531043263447,
        -0.05411866309581904,
        -0.0020102580451717327,
        0.09644681512044205,
        -0.040959820121805456,
        0.025311402068381797,
        -0.09674342261145082,
        -0.014693640482108245,
        0.092266651780479,
        -0.060015416880362236,
        -0.0307629064420751,
        0.03303604523867402,
        0.012146824597600648,
        0.01629495329556472,
        0.009640987629752757,
        0.037588547907439436,
        -0.04112870289426648,
        -0.031112572199646436,
        -0.02409539900732765,
        0.004439463623424381,
        0.01568957980788267,
        0.07921666143516744,
        -0.02277340866475435,
        -0.012756776870570877,
        0.06841856531485604,
        0.09845365061293332
      ],
      [
        -0.06724340249773056,
        0.04743393909531227,
        -0.06070196642493746,
        0.05165280373625397,
        -0.10586318819189765,
        0.0014046725806568738,
        0.008214449227652002,
        0.040936987515000446,
        0.08671040419439725,
        0.05543116943395799,
        0.006979839380688549,
        -0.0077529316657020675,
        -0.1019293864580695,
        0.012868396123494458,
        0.003951930880751737,
        0.05126771234480013,
        -0.07963424579244677,
        0.007479721804853943,
        -0.10109784693432293,
        0.034692050585996254,
        0.06881929655608474,
        -0.020026713930668922,
        0.04221696508130531,
        0.031599310714812125,
        -0.041506054521288485,
        -0.08907962873176517,
        0.05517542576340562,
        -0.030631077481077712,
        -0.0649567975857532,
        -0.027097678425664993,
        0.07435961840006312,
        0.09272524736182264,
        0.0077504870409044885,
        0.08721034757136831,
        -0.06875489416245806,
        -0.0035966791593445616,
        -0.10490769067388937,
        -0.05876022967207908,
        0.0750914484202095,
        -0.09222601030955487,
        0.03308085384532015,
        0.003136023312177839,
        0.09237344823234583,
        0.10194670466664382,
        -0.07171936789184938,
        -0.056603640639070696,
        0.10389679689625766,
        -0.03809585669653978,
        -0.08147962324829755,
        0.06795829335422503,
        0.026263021024480356,
        -0.045476249443872324,
        0.009188174969381829,
        -0.014810951446752494,
        -0.016642057775516375,
        0.0035028505934355894,
        -0.06844653713323648,
        0.019096272431787572,
        0.09609722851226121,
        0.020420068701046488,
        0.06263803711959574,
        -0.04660655381014223,
        -0.08487566551064536,
        -0.10556735945065207,
        0.1030548473057012,
        -0.07955894040304799,
        -0.028325632148446227,
        0.03316002653320668,
        0.050278983034963254,
        0.026266543978807826,
        -0.013745366105421264,
        0.0674960781171624,
        -0.012353354107354398,
        0.07229570925338931,
        -0.09558064863286818,
        0.03484968980638419,
        -0.08630638524716507,
        -0.026743558516107626,
        -0.011901214739184453,
        -0.07021853360247202,
        -0.01142882546966181,
        0.0759978829565251,
        -0.09994995627735771,
        -0.06592377300895709,
        0.1006300694403067,
        -0.012951262391988221,
        -0.02584921675756024
      ],
      [
        0.1053867258889891,
        0.06294871185506908,
        -0.06125610425121726,
        0.031103191645649862,
        -0.06720009383068382,
        0.06881904334826085,
        0.013373909666562784,
        0.06576527318581384,
        -0.08977906806136142,
        0.09815019224086971,
        -0.04770886993913649,
        0.07246740955343565,
        -0.0027230579484754467,
        0.09655823183587163,
        -0.0866319625299956,
        -0.08368951342028423,
        -0.0035813847180997845,
        0.09726539869740028,
        0.012012213713497671,
        0.0053298159398935206,
        -0.061704583869422354,
        0.011104267289137137,
        -0.010926584770028969,
        0.08161833206697951,
        0.05301640252890073,
        -0.0049597187166513235,
        -0.07460730744732876,
        -0.07587835957756903,
        0.12077243576677207,
        0.01594123235191854,
        -0.05240459601938842,
        0.06463652684997725,
        -0.04176734859427921,
        -0.0008917957896350735,
        0.08328474197328428,
        -0.08557760344482225,
        -0.08268420350098281,
        -0.09597824373003574,
        -0.07656045627420718,
        -0.0193823738474007,
        -0.030091119110063194,
        -0.04487297727630101,
        -0.10063016601692248,
        0.014993732117061455,
        0.015079936812509881,
        0.05322144352649824,
        -0.042761402619153926,
        0.03396485925744752,
        -0.03531992197328434,
        0.04285889292357264,
        -0.06381023505411215,
        -0.002503778647413692,
        -0.012437075092045596,
        -0.004978570764013233,
        0.01876644353124421,
        0.017907953563954377,
        -0.03056578714919823,
        0.0686968009844521,
        0.09596211445728806,
        0.014655018924552341,
        0.03118283798073089,
        0.04793114914171328,
        -0.025265399106352088,
        0.019647813004317824,
        -0.008109257152370451,
        0.0008136823363229906,
        -0.023681587994601565,
        0.0077710100766942005,
        -0.06040888665276392,
        -0.05492960377349116,
        -0.064024052553111,
        0.02025052765314829,
        -0.05458058645314264,
        0.06650685049904118,
        0.08686341658460281,
        0.06543947834853799,
        -0.03680247306411309,
        0.09494345517250136,
        -0.03300654527436095,
        -0.029227558736861253,
        0.02274184482300683,
        0.03565770431260293,
        -0.016340680048317888,
        0.061350059562933636,
        0.07802127480925047,
        -0.043230132103655186,
        -0.05779910672209569
      ],
      [
        -0.02037836591878366,
        0.04153905933776907,
        0.03660109727941209,
        -0.07719082584470767,
        -0.017465274639748018,
        0.07880664505531454,
        0.10477811188809968,
        0.021812249745534352,
        0.060423781880720055,
        0.07510960025664018,
        -0.05996816470069229,
        -0.08304760370940546,
        0.014025240907704897,
        -0.03678400761299557,
        0.0560641461495367,
        -0.05254820407343588,
        -0.008513571795319825,
        0.07600435441615631,
        -0.09556435564857979,
        -0.006077759021584636,
        -0.0819657884930392,
        0.0122190152173914,
        0.04431226851407607,
        0.10885352176574055,
        0.05306124417814279,
        -0.07526661328602986,
        -0.01375639293150952,
        0.009041890324686695,
        0.005922630352215554,
        0.0650796017950423,
        0.09345249825554673,
        0.10034640748729423,
        -0.06980754549638522,
        -0.0650823969227763,
        0.09750563036809298,
        -0.07073480391431487,
        0.09804617925450819,
        -0.07967338590996706,
        0.02524321854046417,
        -0.08772727483339882,
        -0.08481677198554043,
        -0.03854882350280546,
        0.07458010863227557,
        0.03377156813664548,
        -0.06945160083621774,
        -0.07319945186158452,
        -0.028506296796282717,
        -0.08028940668523485,
        -0.045736746174555074,
        0.030220475867585413,
        -0.00817475992577957,
        0.09507974096915338,
        -0.08441043976145154,
        0.003357106515067473,
        0.013851883846896633,
        -0.07466908787701992,
        -0.03909915673671297,
        -0.07146877700796751,
        0.0865925798679153,
        -0.034785229973691406,
        -0.09717784870564931,
        -0.005320389886075951,
        0.009173757043773881,
        0.08248936357114456,
        0.04717207928481262,
        -0.06835920941050344,
        0.09090145231245367,
        -0.10607518652348935,
        0.04226224048697461,
        -0.09842233569103881,
        0.06906798578072255,
        -0.06656768083119642,
        0.06371358242709214,
        0.059498665532630404,
        0.05818382819661224,
        -0.07453237598060199,
        -0.021371533865630944,
        -0.08180336567565917,
        0.04633513481251985,
        0.10638789933526172,
        0.0027662767489207507,
        0.030485098703734843,
        0.034174616125680915,
        -0.07610083232063303,
        -0.027351821627935424,
        -0.03171221186015755,
        0.05497573038919619
      ],
      [
        -0.018829196497596387,
        -0.027645515504347986,
        0.011278343174355655,
        -0.06034116784925456,
        -0.09463363011645165,
        -0.05358329411327664,
        -0.10413621016674483,
        0.03691310380532806,
        -0.009268116113058668,
        0.025046057867765644,
        0.01515668585915585,
        -0.09842214126804892,
        0.07061726555906925,
        0.07239167577073151,
        -0.10837265714207997,
        -0.011863328904257576,
        0.060216558125931297,
        -0.02105834934208323,
        0.08014839817636422,
        0.037946635130597955,
        0.037231841292493885,
        0.08604002251814358,
        0.06161236255766428,
        0.017052767496112405,
        -0.09682842699193693,
        -0.009959246834836788,
        0.04052582054244571,
        0.004963859514850193,
        0.025885278539851075,
        -0.03830363859266906,
        0.07564381187768851,
        -0.0557473937799108,
        0.03296382827882341,
        -0.015263360857827911,
        -0.07424836502541994,
        -0.10358269316171863,
        -0.07850133008327087,
        -0.045787657187595,
        -0.007845666269936978,
        -0.09854385866968216,
        -0.09056251175618603,
        0.06450059774385324,
        0.09985875781678079,
        -0.011199590256009294,
        0.0030613817005739697,
        0.021052418568036812,
        -0.08682902466707497,
        0.01208787607677946,
        0.03438093409800076,
        0.08616862175628882,
        0.03271737716057593,
        0.008627508392424665,
        -0.020181791686787225,
        0.0894558259285303,
        0.0053767511410767336,
        -0.005109374225963984,
        0.05324186831694642,
        -0.014677904526606745,
        -0.09337823493421374,
        0.020433147449151798,
        0.07956292262391229,
        -0.028008519139585658,
        -0.08705590323032056,
        -0.0843157705808812,
        0.08700682127723271,
        -0.08163702917051274,
        0.03220448307646311,
        -0.08840475161064491,
        0.0026510060957902473,
        0.08795407215998974,
        -0.05713136181130524,
        -0.041283507104850556,
        0.023866408387292187,
        0.020432307327473385,
        0.012962441797314777,
        -0.027265778726772782,
        -0.09839476740681669,
        0.0194862455154918,
        -0.047856946070470925,
        0.026152973224862715,
        -0.012223586452070867,
        -0.04859766466890365,
        0.1068346284355301,
        -0.038375431593278775,
        0.1008142711496108,
        -0.004681799134489478,
        0.006902720865551534
      ],
      [
        -0.014000415716267638,
        -0.06254322966651041,
        0.062671664398716,
        0.005149873451834644,
        0.02657123585658013,
        -0.053787033098876814,
        0.010285087476973816,
        0.04077980683769011,
        0.06331237784630678,
        0.054068312673527734,
        0.001854518982059536,
        0.04322324505594414,
        0.03249487245676896,
        0.012365386736033657,
        0.03521312489469709,
        -0.023515613227508815,
        -0.08204417698518153,
        -0.05792755475895358,
        0.13332332839856667,
        0.10248900997324863,
        0.0851394118722315,
        -0.042389224843051965,
        0.07771714238025725,
        0.06257568671798329,
        0.00955291273096138,
        -0.041718731196581,
        -0.08316005863552088,
        0.10668502821799038,
        0.12850105545199733,
        0.07735198105474622,
        -0.004074646942651849,
        0.04970688860562147,
        0.12076169188267918,
        0.03529510463503935,
        -0.07746937388732517,
        0.10240502423415063,
        0.011239829208592672,
        0.059062913685462695,
        0.027303203837620398,
        -0.08327299511413945,
        0.004081371265536199,
        -0.10181242491844956,
        -0.03323804345151219,
        0.12721379307023736,
        0.07060653950920541,
        0.021157757370613192,
        -0.08290593093903222,
        0.06363219226516417,
        0.042691644393594706,
        0.033376397128001965,
        0.048245676824008606,
        0.09489844817676284,
        -0.010163405108007425,
        0.02811800762692164,
        0.02901711924683718,
        0.04139675513983435,
        0.04938327311097636,
        -0.06300430004911524,
        -0.09500186970167201,
        -0.08011453746437132,
        -0.09112256221454032,
        0.011807652119247345,
        -0.012439016554078456,
        0.0613480561718623,
        -0.0723952312246221,
        -0.07007401548827083,
        0.07888609816553789,
        -0.08794098538388373,
        -0.031529639739827545,
        0.041073948570165865,
        0.014211235545132535,
        -0.04997470272129243,
        -0.078291220536695,
        0.013022453722099633,
        -0.05398245540856304,
        0.11437514025630914,
        -0.05039634236952967,
        0.09592487333120536,
        -0.10185782275831033,
        0.02775696696618333,
        -0.04174074404640984,
        -0.0011494573129614551,
        -0.008449495533455498,
        0.06637091690348916,
        -0.06266377452617086,
        0.06266051852411893,
        -0.09609559050713935
      ],
      [
        0.06220018101764267,
        0.07629595554539662,
        0.0031760259169864124,
        0.08954690682603432,
        -0.024248428812425088,
        -0.016771731908329087,
        0.09485431181515576,
        0.11020170062209114,
        0.06943570142706057,
        -0.04049283335974511,
        0.11482409983229151,
        -0.027251606377100883,
        0.09159266010537692,
        -0.019956939869614557,
        -0.055432258302241785,
        -0.03411622001792094,
        0.05107366248782619,
        0.11786149098761174,
        0.03581844171409781,
        -0.06950802104552704,
        0.054532521616015586,
        0.09334634839594713,
        0.06551078406312241,
        -0.10684151467855332,
        -0.03950845046576592,
        0.05943259368535965,
        0.04433668427919277,
        0.10631921478696407,
        0.10907144652661768,
        0.06303423054529081,
        0.04742504725537262,
        -0.026007965351360678,
        -0.0666449730645945,
        0.08107115201669238,
        -0.0064649428009904645,
        0.07833627651620413,
        -0.07576582468560791,
        0.0775226089223272,
        0.030791363087741205,
        0.09347728197190297,
        0.05502130028536639,
        -0.011096799580456894,
        0.018034929549221076,
        -0.05715120291069821,
        -0.021458707451280406,
        0.022308826010875436,
        -0.069039516009443,
        -0.005557510069753455,
        0.04811180769235848,
        0.018549992815255757,
        0.09228053465826844,
        -0.011871569387607745,
        0.012180481567376283,
        -0.011860122335226039,
        0.07749623182840075,
        0.04833193305242329,
        0.10638886249800376,
        -0.07420454580602676,
        -0.07997876560861854,
        -0.042115744628457526,
        0.03022911213576995,
        0.029689086504753357,
        -0.03672535879162047,
        -0.049088150413719576,
        0.020484687533169753,
        -0.045886853087448914,
        0.07084524167716533,
        -0.08431387167930873,
        0.060570477786190985,
        -0.07491903222031929,
        0.04514840487055286,
        0.06045967821783113,
        0.09503317717743459,
        0.0846915059184002,
        -0.10191133378934028,
        0.07020465597881329,
        0.08796026286374616,
        0.06033363106034869,
        -0.008893675518697254,
        0.05609903590635926,
        -0.04251313992297759,
        0.06815262723357186,
        -0.014965952856033561,
        0.10102299608917484,
        -0.09625165777971283,
        0.02290508955859082,
        -0.07597929380364958
      ],
      [
        0.08552940977642506,
        0.1065854312534362,
        0.013382907938136686,
        0.08380827508902072,
        -0.049845019542078,
        -0.09072303753977497,
        0.07222538309220411,
        -0.012645690700823664,
        -0.08328693440391731,
        0.05241154477073146,
        0.10180448149952288,
        -0.0852267482315863,
        0.03177939932374819,
        -0.020577857192918655,
        -0.09082840910338123,
        -0.0783296247969264,
        -0.08753407995069969,
        -0.026072901552881805,
        -0.01665853279128774,
        0.02443604043815126,
        0.03674984897177253,
        0.08307144015570375,
        0.0797380435561817,
        -0.06964134574154542,
        0.02768295374291108,
        0.08117318836976367,
        -0.05302148403163145,
        0.02207678045132294,
        0.1197767065987175,
        0.03293579271542017,
        0.04782777662068656,
        -0.03943449848811399,
        0.13052900910001777,
        0.09315690486976023,
        -0.036036284226403655,
        -0.0421158470982924,
        -0.10393991383407619,
        -0.0027846704111933254,
        0.08217191109736884,
        0.06788983411322065,
        -0.06665759497954427,
        -0.053493693295659284,
        -0.05863207015441108,
        -0.030179020694828005,
        -0.04380016781958153,
        -0.06570087854962219,
        0.011724376953499465,
        0.10753630281367882,
        0.09342929328221473,
        0.032507796770061985,
        -0.033915711416885944,
        0.09065338349716051,
        -0.06028425078764533,
        -0.0959663951181335,
        -0.04196892087133118,
        0.0799988334958106,
        0.05040286495789385,
        -0.036777956940299526,
        -0.05960787004555082,
        0.030861827101240167,
        0.00786305820833714,
        0.06303023607387674,
        0.01223329230370616,
        -0.08879187432344424,
        -0.09198170667898181,
        -0.054395409885702586,
        0.005666808089487833,
        0.04602367459298149,
        0.012029034987626343,
        -0.10432339488077758,
        0.09723944146572205,
        -0.008966850010965075,
        0.00864639149713003,
        -0.06548588132781571,
        -0.05499640607745602,
        -0.03414794492547876,
        0.022814974521152075,
        0.09075339917586848,
        -0.049924082663548836,
        -0.028615399000754233,
        -0.04107323453326608,
        -0.09652722076911308,
        -0.10103780855916282,
        0.060346338171553666,
        0.10579621885682619,
        -0.09397409907424081,
        -0.08757851198218787
      ],
      [
        -0.023467392737415396,
        -0.04540772645371151,
        -0.06260300268328152,
        0.07227402034178505,
        -0.06887452292508697,
        -0.07215391562016261,
        0.08403744748109007,
        0.02340999124642771,
        0.03680025474827612,
        0.028901110286331945,
        -0.11008872157620954,
        0.10239095349754342,
        -0.10642183628973856,
        -0.06705423451083686,
        -0.007595916714081512,
        0.06358900944275028,
        0.09166149552759878,
        -0.10970918792077573,
        -0.09067275752113692,
        -0.10831568346907693,
        -0.08517088982986672,
        0.08494459815729981,
        -0.09184862644401497,
        0.00846583307103817,
        -0.06614716683738991,
        -0.10569391593292786,
        -0.04754526575967182,
        -0.051663679497311835,
        -0.0023244493620553563,
        0.08053054942071129,
        0.0021939514351564044,
        0.007040941011943683,
        -0.061603381300622456,
        -0.07865104134696306,
        -0.005931344578523731,
        -0.02271482426335133,
        0.08440440546332144,
        -0.06302530286808466,
        -0.10213366218105348,
        -0.10067393647304357,
        -0.04509077013078125,
        -0.0616490548501087,
        -0.027490731061306974,
        0.0688460329342897,
        0.03407911574905906,
        0.017315511009945623,
        0.07115026350629157,
        0.06993112180994376,
        -0.10008019265020685,
        0.04193832634516741,
        -0.08328767120324479,
        -0.020381806416799625,
        -0.023784354276925098,
        -0.051014303326721,
        -0.10603655734236442,
        -0.07416435913190918,
        0.03841967280442298,
        0.09658133750932939,
        0.08784500097113881,
        -0.10340636396240638,
        0.012990893113493699,
        -0.06628542245642118,
        -0.005636325016717437,
        0.0070883169953836495,
        -0.07235549751068386,
        -0.09084703319113013,
        -0.0041846495818667565,
        -0.09588268166999372,
        0.0730947797934396,
        0.08392324188449436,
        -0.10335177803280979,
        0.06448072310436828,
        0.07258822110226794,
        -0.10263824880832652,
        0.01867959740899713,
        -0.015845957951564172,
        -0.06960661684068681,
        0.06738021342514534,
        0.014076035949205614,
        0.06519554019210254,
        0.09046500500973181,
        0.098840580115897,
        0.032425437220765845,
        0.07990587017175031,
        -0.09542450611536632,
        -0.03679997421226234,
        -0.006716871814911619
      ],
      [
        -0.0209522895654773,
        -0.0342222627980411,
        0.055052017681053854,
        0.004235383115190505,
        0.07039502874438242,
        -0.025133999614648326,
        0.0908727746848253,
        -0.036585308898493804,
        0.10060940974815975,
        0.002230859737308877,
        -0.04034624787058219,
        0.026601499450279766,
        -0.0955071232178384,
        0.02367922314146204,
        0.019256761009728455,
        0.04916140989169841,
        -0.09724066349193711,
        -0.0245786767861016,
        -0.005835467692017054,
        -0.10131934264141441,
        0.04248728010164607,
        0.08093650476903008,
        0.021035448253091442,
        0.057838493516936526,
        0.09411965813982084,
        -0.009780874271600888,
        0.001727124887191994,
        0.08319639182411932,
        0.013642210950904862,
        -0.04197566054759806,
        0.010021274139102023,
        0.05923805762042651,
        0.048434094501547245,
        -0.09590544509215848,
        -0.07476108382455622,
        0.04071916884735328,
        0.043065980637286824,
        0.0489324852603969,
        -0.0007146065485031113,
        -0.03472799845839879,
        0.08730607856424369,
        -0.05581456532553197,
        -0.05404352135075368,
        -0.12476231095780584,
        -0.1196262910324139,
        0.02337238060038261,
        0.03541105622173004,
        -0.08076826718905188,
        0.0402844755433206,
        -0.0639190231750188,
        -0.03549531189396362,
        0.028650216949237035,
        0.05979557221232222,
        -0.014005504914937742,
        0.05015513697721705,
        -0.02150816603538796,
        0.023548101877348418,
        0.07079812439561596,
        0.013962190508186725,
        0.011115248505350927,
        0.0851176061451464,
        -0.09986663419956661,
        -0.12144853241148479,
        -0.09996758055979678,
        -0.040502867426142425,
        0.0022185684925051063,
        0.02620166545882096,
        0.038874476681932,
        -0.10350741133945505,
        0.08078861326600241,
        -0.056281017383571726,
        0.10017762343885381,
        -0.03304086364383922,
        0.077798017625369,
        0.045578189651715,
        -0.13035177139766294,
        0.002585347070517375,
        -0.024460597101105302,
        0.10498547797086043,
        -0.06009329891732686,
        -0.027075657077343444,
        -0.0743888672793116,
        -0.1103706070083435,
        0.008278450005238292,
        0.022301831997903553,
        -0.07529312643425154,
        0.07017856623330608
      ],
      [
        -0.09324823522832082,
        0.08557894539331799,
        0.01783680033208699,
        0.08248726910372156,
        -0.019256144497866643,
        0.05465291809586159,
        0.016726939771695336,
        0.03930347668932528,
        -0.026901399445544077,
        -0.014320324966594215,
        -0.07034159824804,
        -0.0338122651157135,
        0.07555383532715744,
        -0.11355077112150318,
        0.06792029885624198,
        0.031216810606995306,
        -0.08211747697450329,
        -0.026215469598374265,
        0.03704624448179105,
        -0.008629660506239875,
        -0.017249295713289092,
        -0.00667147747942456,
        -0.07795940506202995,
        0.1064502554181971,
        0.05140164620381697,
        -0.04605663300054099,
        -0.03385846495431479,
        0.0444996232948188,
        0.04621318597309784,
        0.01776977687699892,
        -0.05681955692440628,
        -0.028477571252129363,
        -0.02731575135159312,
        0.0592305218716916,
        0.03944046740195162,
        -0.058361615065486615,
        -0.10714257077309629,
        0.03309293760987923,
        -0.049598596934103956,
        0.06721274015628906,
        -0.08806284543941374,
        0.10239337725821217,
        0.05256357298767573,
        -0.08626008226412554,
        -0.1472044798930244,
        0.06311191903305866,
        -0.0830082087563395,
        -0.1040628236071442,
        -0.04059137825896728,
        -0.060780358832767147,
        -0.0975459193533575,
        0.008921274229539774,
        0.03347812810092908,
        0.055328102271359376,
        -0.1178653351043561,
        -0.11830421907365125,
        -0.02119046139285153,
        0.05032933120942484,
        -0.061951180560172486,
        0.01723041943617701,
        -0.08992241677555747,
        0.0854386637506572,
        0.053598209218634084,
        0.09314562914538499,
        -0.023723502318212006,
        -0.09669124993141245,
        0.06885070203528604,
        -0.01256196240727375,
        -0.03225639890933384,
        -0.01459858918196793,
        0.04634716273032481,
        0.048879101683263426,
        -0.013752522239260998,
        -0.05301009119343722,
        -0.07482835366311512,
        -0.1290312064966448,
        0.0990616453131621,
        0.09800328938326881,
        -0.09350722429712638,
        0.016597337123421586,
        0.09542211001223162,
        0.011572372046719182,
        0.09481361200377947,
        -0.07599411777621302,
        0.04184702506846443,
        0.06833978572924479,
        -0.08591501912600065
      ]
    ],
    "input_size": 87,
    "output_bias": 0.07774433578517591,
    "output_weights": [
      -0.06500569452113601,
      0.042285592981495534,
      -0.024904832289574734,
      0.08305122407366869,
      0.15238794274067244,
      0.12797315666032774,
      0.07412874031306742,
      -0.07821970495619787,
      0.11880816819041898,
      -0.16326652466159863,
      -0.022533915135700317,
      -0.027442767427482785,
      0.022047231570735543,
      -0.03756367704795575,
      -0.08455556259350812,
      0.0590552941715321,
      -0.16377491402422212,
      0.011105537447403847,
      0.03133767894111503,
      -0.08989594582553913,
      0.0003482971070200801,
      0.08125094942124077,
      0.027354920846680373,
      0.09374350780540125,
      -0.16173302046434962,
      0.04609407554287391,
      0.10936148985419414,
      0.12293534780628729,
      0.035376540016991,
      -0.06284969825255277,
      -0.09395669985041188,
      -0.15248732100638046
    ],
    "policy_bias": [
      -0.026888930703117354,
      -0.027044579572779694,
      -0.045203845147395214,
      -0.04289503221191272,
      0.022973266760262564,
      -0.03458459100364861,
      -0.005529131822687267,
      -0.0330990543988985,
      -0.027078455783546077,
      -0.004158513520755442,
      -0.02160348578668279,
      -0.03181226711771429,
      -0.0382453988146603,
      -0.034512674354679036,
      0.0877567809884157,
      0.26192591248979913
    ],
    "policy_names": [
      "PLACE_SETTLEMENT",
      "PLACE_ROAD",
      "ROLL_DICE",
      "DISCARD",
      "MOVE_ROBBER",
      "STEAL_RESOURCE",
      "BUILD_ROAD",
      "BUILD_SETTLEMENT",
      "BUILD_CITY",
      "BUY_DEV_CARD",
      "PLAY_KNIGHT",
      "PLAY_ROAD_BUILDING",
      "PLAY_YEAR_OF_PLENTY",
      "PLAY_MONOPOLY",
      "MARITIME_TRADE",
      "END_TURN"
    ],
    "policy_weights": [
      [
        -0.10775878404855155,
        -0.03771370133126508,
        0.043860384667928895,
        -0.03113858772353855,
        0.011794226046949307,
        -0.06624625448767195,
        0.09514490570028793,
        0.09604571910378004,
        -0.055913242974033335,
        -0.018498661468580722,
        -0.08749078001813453,
        -0.027607529024329672,
        -0.04163375686592479,
        0.03598248857166315,
        -0.042592177571952994,
        0.0419535959442163,
        -0.10326983257106823,
        0.05938870983529094,
        0.016864374171964198,
        -0.023587438027709882,
        0.04831021809523379,
        0.08211394314028872,
        0.08703073827714088,
        0.03837758665270502,
        -0.00468217565485343,
        0.016851841353852183,
        0.03973220293890285,
        -0.05217371040365615,
        0.07531082805822197,
        0.07263388733701462,
        0.05012427347037931,
        0.06532010002103864
      ],
      [
        -0.1023267773989597,
        0.07671610664076833,
        -0.013706586999846674,
        0.030579412696380655,
        0.03522191228442929,
        -0.03301132305844483,
        0.04300572093106688,
        0.08345222924907762,
        0.09981508860017169,
        -0.09979284939927782,
        0.084805734827394,
        0.05426752849910285,
        0.032990727614286015,
        0.04505070004067188,
        -0.03564444252796959,
        -0.018304095126528502,
        -0.10144269805544372,
        0.1052805190774618,
        0.054247410241086196,
        0.024100188606953694,
        0.015452131956128842,
        0.07185769854629684,
        -0.07094542603164836,
        0.011907509517094187,
        0.05847603610144934,
        0.014515891937733541,
        0.0860997924969772,
        -0.06377894525389104,
        0.03382844297183288,
        0.06954705509655948,
        -0.016509846897705932,
        0.10437006339888685
      ],
      [
        -0.027709276237878794,
        -0.06360145423242611,
        -0.07251263136044318,
        -0.03456087047770459,
        0.10410382563958043,
        0.06836419426340964,
        0.07573161423718044,
        0.04673440925010923,
        -0.009444510605706787,
        0.037869955429250125,
        0.018906637692775567,
        0.0899288904157468,
        -0.0026166505153579506,
        -0.03787973488123773,
        0.04582267649711368,
        0.06853607125761273,
        0.04612013301404619,
        -0.053221052788847145,
        0.00980253916694921,
        -0.022283226391693698,
        -0.06293397127510197,
        -0.04500203041937488,
        -0.1030394068679324,
        -0.0863737545477064,
        0.049405543518420685,
        0.060223685432093436,
        -0.10591427629241683,
        0.0804429047733931,
        -0.01524218546452997,
        0.07738805446874275,
        -0.08554652924503148,
        -0.07768544929101355
      ],
      [
        0.058923203646686684,
        -0.07514883130244401,
        -0.10072732771194427,
        0.022948664793583137,
        -0.09776881935633894,
        -0.037408061348282395,
        0.058234287248553486,
        -0.07166533858794562,
        0.06395615043741738,
        0.09454317935883598,
        0.09832288028048954,
        0.01719433681491542,
        0.08821348994546561,
        -0.0867873251541453,
        0.012759650266228835,
        0.08417549921395436,
        0.07295234118269729,
        -0.05192506580241193,
        0.052715520574715694,
        0.003665704261426552,
        -0.011183748090799969,
        0.07074498205675259,
        0.037891587943099124,
        -0.04190083803989222,
        0.08795494533918193,
        0.08935718901414444,
        0.045702189905693406,
        -0.1108117273518456,
        -0.11127819381112017,
        0.03202824732347771,
        -0.07377775029116417,
        -0.07694573391068238
      ],
      [
        0.08447289037064432,
        -0.09811735914677028,
        -0.043789866082080256,
        -0.03328950072451264,
        0.0992726807776281,
        0.11040992400248113,
        0.07167774667608512,
        -0.023665266221592877,
        -0.07921706720025812,
        0.09650301029325388,
        -0.06711538754516158,
        0.03523361244349022,
        0.04891315773640762,
        0.0010334738003761233,
        0.07599274083981852,
        0.09768123448313533,
        -0.032757811117186876,
        0.02905016217102503,
        -0.0744808015180549,
        -0.025832995339662598,
        0.04189038900683814,
        -0.052695409225754594,
        -0.029456934372011773,
        0.057948716158963104,
        -0.06192282023480762,
        0.09436918638803914,
        -0.06626934968536831,
        -0.04961671784894657,
        0.029372187977126252,
        -0.07110760115070172,
        0.07665380768673044,
        -0.03423809734447863
      ],
      [
        -0.0864642194914303,
        0.04530890104098884,
        -0.016932969032572163,
        0.01790576455799911,
        -0.08328588545315456,
        -0.11124304488934407,
        -0.051327472424743975,
        0.01204864054902165,
        -0.0720540795639189,
        -0.05721399415405676,
        0.0691188605064909,
        -0.06100013587982595,
        -0.01726330467822864,
        0.06839034559679612,
        0.10408190216162828,
        0.06118141396391927,
        -0.0812898482614131,
        0.07160621306037775,
        -0.10202891880750413,
        0.08480320333624568,
        -0.059059404112375376,
        -0.05456139019369612,
        -0.014297350831267675,
        -0.08030223060675273,
        0.04526212400173066,
        0.06684431517795517,
        0.019314514977742923,
        0.05231667243568805,
        -0.07843878067438208,
        -0.03599201482096008,
        0.0818857747221948,
        -0.028007796545887496
      ],
      [
        0.05055957899805125,
        0.01448246358235545,
        -0.07391379349625482,
        -0.06098121842173002,
        0.09094695011414579,
        0.08630532555552652,
        0.018667428303214866,
        -0.1014793285926628,
        -0.10323732869000207,
        0.09262075725604318,
        0.06381801219837392,
        0.04043893955751348,
        -0.04854724497992792,
        0.08767670796616893,
        -0.09043594858997799,
        0.04379132162628332,
        0.037079243036601796,
        -0.02682420240500298,
        0.06535628839555789,
        -0.06633210145590047,
        0.09785982047540852,
        0.09521037209659448,
        -0.034336175223740696,
        -0.03527773390239087,
        0.06159770663101083,
        -0.03340554887542369,
        0.01654568802139882,
        0.04034679759759359,
        0.09594412561599366,
        0.05461529017128793,
        -0.04666572905977106,
        -0.03320627704933784
      ],
      [
        -0.09690351112269455,
        0.07283292897815824,
        0.07295174892199756,
        -0.06664191127686891,
        -0.0064212120888968586,
        -0.0463832968308663,
        -0.053186077855411254,
        -0.09287519189379971,
        0.014033098316591256,
        0.10087074125317198,
        -0.07323665734736498,
        0.04906428728512522,
        0.07333779867621792,
        -0.002337644205802334,
        0.07219450802873693,
        -0.012771563389900452,
        0.020816188710484476,
        -0.07946526033820958,
        -0.08723106463135012,
        0.03723728238766894,
        0.0629166129100559,
        -0.0003774536177346573,
        0.0942508908461203,
        -0.004372747935780507,
        -0.010409254491047447,
        0.05928162461565822,
        0.07581983080624656,
        0.07632325305285717,
        0.029724242564464827,
        -0.04882433891430655,
        -0.03233256362684849,
        0.01999128182659939
      ],
      [
        -0.10338258881166507,
        -0.03620295646613555,
        0.05991824627306025,
        -0.06039578363635532,
        0.032388713731957765,
        -0.054997485479983704,
        -0.08553178179508487,
        -0.029531814271908746,
        -0.043807315924086966,
        -0.04444339716713095,
        -0.043060376553893366,
        0.08504048750966095,
        0.028115149227451314,
        -0.009257927425301174,
        -0.05346160647666426,
        -0.043264882218040035,
        0.06035272714978355,
        -0.023423428534027634,
        -0.08609515889031474,
        -0.008083255406460864,
        0.02856383639364806,
        0.09835465296569465,
        0.07185583415146479,
        -0.0032127350496146396,
        -0.06373364532367348,
        0.07975142172124088,
        -0.11137889282097797,
        0.008641181650605168,
        0.09604312246538436,
        -0.02909210396310865,
        0.011065982949658087,
        -0.03429606350026896
      ],
      [
        -0.022021291588613188,
        -0.08383988476913151,
        0.027620475559161053,
        0.04167721498531817,
        -0.07919801519518554,
        -0.10369255928724587,
        -0.0562725564250873,
        -0.028477054247505837,
        -0.01463646339263623,
        0.04567372787878999,
        0.005945179534845499,
        -0.10222978639568873,
        -0.0997566961223231,
        -0.010216423489386084,
        -0.0698261193927675,
        0.06881653864635055,
        0.049498469991885556,
        0.06504123800468546,
        0.023580578529687566,
        -0.06304226766777568,
        0.05981763141355343,
        -0.043123720432752366,
        -0.07249579104318597,
        -0.1001832780242957,
        -0.02443121111590492,
        0.09759444135049672,
        0.037319877395384025,
        0.03350441534790335,
        -0.028101136391125204,
        -0.011182688139098167,
        0.09025165439585991,
        0.10873779774465635
      ],
      [
        -0.04150464141935352,
        0.023096541629112875,
        -0.0014979274963061186,
        -0.06789720290441284,
        0.0037242644849540154,
        -0.09600797768764874,
        0.05927354402777381,
        -0.015047836155999651,
        0.028073342006404055,
        0.06241709930727104,
        -0.05750891434105567,
        0.09030166029145076,
        0.11478672442236491,
        -0.007948843295743996,
        -0.09155583914234476,
        0.034362927660075385,
        0.03380959757781569,
        -0.053229633175772284,
        0.050472385927947144,
        -0.03629799846965417,
        -0.06041213766574412,
        -0.08501510249891141,
        0.02515591629924444,
        0.05121475721494506,
        0.045620110333090706,
        -0.04276459303159667,
        -0.05317772291521261,
        -0.10269961027865468,
        -0.07307530392657176,
        -0.044518330361960824,
        -0.055486314876988685,
        -0.0923325510216301
      ],
      [
        -0.02757993181321467,
        -0.0966578368807853,
        -0.0007715856477664464,
        -0.11439812985820826,
        -0.024955663967902112,
        -0.10075550199067979,
        -0.07948671775061966,
        0.050495589823946266,
        -0.09828684566894694,
        0.06447612060637821,
        0.035697259565479235,
        0.024664738597391486,
        0.02073905613508716,
        0.03743145258392154,
        -0.062341060205573895,
        -0.0175398558169661,
        -0.10735859716313004,
        -0.09242631087412972,
        -0.03146276307205187,
        0.04382798628818701,
        0.08956092691557074,
        0.07819783940112439,
        -0.09450860513473386,
        0.08583029739527326,
        -0.013701037053625879,
        -0.020416690467220184,
        -0.08824134689312448,
        -0.09852728744836797,
        -0.016166613983840384,
        0.021005762452684176,
